10 100
height -0.00048198 0.0034683 -0.00048315 0.0015164 -0.00064575 0.00193 0.00081899 0.00039276 0.0012968 0.0030838 -0.001623 -0.00053619 -0.0010156 -0.0029117 -0.00027934 -0.0013199 -0.0025992 0.00013283 -0.0015457 -0.0014754 7.6751e-05 0.00013412 0.0013758 -0.00053705 0.00030907 -0.0020843 0.0023208 -0.00055219 0.00086583 0.0022685 -0.0015822 -0.0017612 3.5588e-05 -0.00029538 0.00026244 -0.00050753 0.0012619 -0.0033072 0.00035943 -4.3222e-05 0.0019089 -0.00038198 0.00052798 -0.0024513 -0.0043157 -0.0015385 -0.0010625 0.0016157 -0.0015926 -0.00040827 0.0014259 0.0028218 -0.0026128 -0.00027056 -4.3076e-05 0.0012985 0.00074682 0.0012937 0.00032526 0.0010018 -0.0023456 0.00099082 -0.00038879 -5.1473e-05 0.0031774 -0.00075816 -4.9486e-05 -0.0020784 0.0004231 0.00059078 0.00012892 0.00071319 0.00066492 3.6088e-05 0.00060818 -0.00018438 0.00037153 -0.0011075 -0.0015275 0.0013077 0.0011521 -0.0015774 0.00098599 -0.0031276 0.00022421 -0.0029021 0.00024654 0.00012866 -0.00078287 0.00010007 0.00016122 -0.00039384 0.0005652 -0.0020344 -0.00027896 0.0010976 -0.00155 -0.0021367 -0.0023127 -0.00033305 
the 0.002208 -0.00013016 0.00044727 -0.0020972 0.00099662 0.0034031 -6.1172e-05 -0.0027161 0.0017392 -0.00048747 -0.00016822 -0.0033093 -0.0019105 -1.4452e-05 -0.0033382 -0.0018562 -0.0012324 0.004062 -0.0025107 3.969e-05 0.001258 0.0015182 -0.0034904 0.0026814 -0.0044444 -0.0022103 -0.0009325 -0.0013913 0.00083593 -0.0034619 -0.00053379 0.00059869 0.001612 -0.00063115 0.0037929 -0.00013044 -0.0027178 0.0030322 -0.003254 0.00335 0.0014617 0.0033221 -0.00081315 0.0047288 0.0012784 -0.00067345 -0.00021575 -0.0019759 -0.0026968 0.00057849 -0.0030226 -0.0011964 2.2279e-05 0.0024149 -0.0019797 -0.0020809 0.0012405 -0.0016688 0.0022607 0.0012096 -0.0013159 0.0021648 0.00072628 0.00086673 0.00080606 -0.0033737 0.00013189 -0.0054147 -4.523e-05 -0.0020329 -0.00029312 0.00091637 0.002887 -0.0011743 -0.0039311 -0.002501 -0.0017894 0.00036464 0.0017336 0.0026065 -0.00062907 -0.0051519 -0.00089996 -0.0030343 0.00083994 0.00059881 0.0045755 -0.0030865 -0.0022986 0.0022781 -6.5904e-05 -0.0034248 0.0027853 -0.0010451 -0.00067076 -0.00030753 -0.0020536 0.00097454 -0.00044538 -0.0034025 
and 0.0018174 0.0020782 -0.0019394 -6.0974e-05 0.00256 0.0020506 -0.0029607 -0.00066924 -0.00017565 0.0011184 -0.0081144 -0.0027379 -0.00082839 0.00046228 0.0015714 -0.00074488 0.00067976 -0.00067861 -0.00023203 -0.0021254 -0.0017181 -0.0018521 -0.00010423 -0.0013481 -0.00033212 0.0036239 0.0012429 -0.0020539 -0.004696 0.0013291 0.0020674 0.0024692 -0.0017103 0.0020159 0.0013289 -0.002864 -0.0025353 0.0014033 0.0032365 -3.6199e-05 4.8418e-05 0.0015702 0.0010359 -0.002874 -0.00039491 0.0048671 -0.0014056 -0.0017765 -0.00087761 -0.00090322 0.0040178 0.0024888 0.00073443 -0.0019694 -0.0023517 0.0024015 0.006284 -0.0013485 0.0034901 0.00065635 0.0032313 -0.000435 0.0026845 0.0012731 0.0014414 0.0027192 -0.0028895 -0.000453 0.00069473 -0.0010334 -0.0022831 0.0010196 -0.0032153 -0.0025468 0.0013602 -0.0011244 -0.0025541 -0.0017031 0.0035261 0.0027593 -0.00031764 -0.00066931 -0.0027135 -0.0023599 0.0028003 -0.00091356 0.0021851 0.0017906 -0.0034927 -0.0025583 -0.0014742 -0.0012137 -0.0012894 0.00072842 0.0036836 -0.00086639 0.00060518 0.0023162 0.0015108 0.0029355 
m -0.0025578 0.00077086 -0.0055105 0.0014264 0.0051294 0.004049 -0.00024313 0.001286 0.0073005 0.00048853 -0.0059395 0.00032705 -0.0061736 0.0011851 0.002211 -0.0077719 -0.0013021 0.00084056 0.0013883 -0.0011229 0.0035613 0.00091033 -8.3179e-05 0.0038241 -0.008201 0.0014686 -0.00063398 -0.0031583 -0.0047664 -0.0027906 0.004048 -0.00058049 -0.0038041 -1.3323e-05 0.0022376 -0.00076228 -0.0028671 -1.1969e-05 -0.0030114 0.0037854 -0.003536 -0.0044183 -0.0059275 0.00027706 -0.0048928 0.0028045 0.004313 -0.004844 2.3954e-05 0.0043649 -0.00066811 -0.00023084 0.0011634 -0.0072954 0.0023543 0.0010811 0.0040355 -0.0022079 0.00051417 -0.0038392 -0.0058322 0.0058251 0.0012041 -0.0011998 -0.0070574 -0.0006636 0.0010339 0.0010665 0.0041213 -0.0044971 0.0015907 0.0018166 0.00258 -0.0022663 0.0040556 0.0054098 -0.0026806 0.00092926 0.0040904 -0.0043347 -0.0040986 0.0053214 0.0058652 0.0046147 -2.0104e-05 -0.0028219 -0.003427 0.0046711 -0.0090459 -0.0081263 -0.0043035 0.0018462 0.0010596 0.0052751 -0.00094174 -0.0057705 0.0038842 0.0067847 -0.0061657 0.0027477 
of -0.0009732 0.0052861 -0.0026871 -0.00151 0.0048023 0.0033406 0.0017331 -0.00023383 0.0002811 0.00068188 -0.00025498 -0.0062152 -0.004071 0.00042083 0.0025593 -0.00050234 -0.0016163 0.001695 -0.0016027 0.00033964 0.0046698 -0.0025747 -0.0076725 -0.00024908 0.0021049 0.0013668 0.005333 -0.001352 0.0037221 -0.0019347 0.0041233 6.9287e-05 -0.0030774 -0.0045978 0.0012017 0.0011775 -0.0053579 0.0031008 0.0036784 0.0017791 -0.0028499 -0.0034607 1.8567e-05 0.0037643 0.0040327 -0.0016055 0.0011585 0.0030548 -0.0049309 -9.3268e-05 -0.00092191 0.00067286 -0.00076714 0.0014947 -0.0012752 0.0032967 0.0039623 0.002446 0.0021073 -0.0020576 0.00067241 0.0027908 0.00012809 0.0041127 0.0021068 0.00059757 -0.0033859 -0.0030341 0.0010399 -0.0026279 -0.0014649 0.0021307 -0.00010828 0.0042251 -0.0070066 -0.0013925 0.00074514 -0.0064631 -0.00097027 -0.00072199 0.0024927 0.00044743 0.0011174 -0.0018191 0.003204 0.0018787 -0.00077965 -0.0031334 0.0003388 0.0040895 0.0032366 0.0012949 0.002395 -0.0038719 -0.0023266 0.0040914 2.6215e-05 -8.203e-05 -0.0010135 -0.0055724 
is 0.0025892 0.0008164 0.0052434 0.0018733 0.0048802 0.0015981 0.0047813 -0.00081858 -0.00037281 0.0011518 -0.0019308 0.0011082 -0.0010839 -0.0013463 -0.0012844 0.00023977 -0.0015794 -0.0017348 0.00062889 0.0028589 -0.00089262 -0.0031622 0.0059802 -0.0031719 0.0025839 0.0040583 0.00030884 -0.0022086 -0.0043695 -0.0043574 -0.0006423 0.0018878 0.00045299 -0.0013119 0.00021454 -0.0011697 0.00029791 -0.00095111 -0.0023218 0.0035172 -0.00084014 -0.00072221 -0.0016348 0.0025623 0.0023682 0.0024952 -0.0019579 -0.004281 -0.0018718 0.0048255 0.0015043 -0.0034578 -0.0019294 -0.00091098 -0.0034014 -0.0039584 0.00060598 0.00045113 0.0014426 0.0010952 0.0026327 -0.0019754 0.0018961 0.0039869 -0.00477 0.002048 -0.0032768 -0.0015547 -0.0049044 0.00078469 -0.0070535 0.0026793 0.0015224 -0.00053488 -0.0019481 -0.0020331 0.0050274 -0.0041323 -0.0028603 0.001768 5.747e-05 -0.00016949 -0.00074159 0.0068326 0.0023333 -0.003466 0.00033146 0.0037997 -0.0061383 0.00038804 -0.0060951 -0.0015761 -0.0062386 0.0038355 -0.0030597 0.0012691 0.002128 0.00038105 -0.0051497 -0.0032428 
by -0.00010912 0.00099751 -0.00010897 -0.0026612 0.0023285 0.0024032 0.0019086 -0.0012192 -0.0026854 0.006195 0.0024344 0.0079937 -0.0038282 -0.0060888 0.0039656 0.00097003 -0.0049674 -0.0017432 0.0054456 -0.0015841 -0.00058563 -0.0010129 -5.4405e-05 -0.005854 -0.0038592 -0.0019171 -0.00039072 0.0019639 -0.0021786 0.0082643 -0.0037692 -0.0038383 -0.0037636 0.0027245 0.003088 0.00052288 -0.0019445 0.002944 -0.0030937 -0.0010642 -0.0063309 -0.0007139 0.0011583 0.0018944 -0.001434 -0.0033105 0.0067873 -0.0023075 0.00166 -0.0048452 0.0006278 0.00087165 -0.00044117 -0.00057429 0.002332 0.0031939 0.0029576 0.00050798 0.0023591 -0.0026924 0.00055101 0.0024951 -0.00041678 -0.0043881 0.00080064 0.0028284 -0.0019745 0.00053788 -0.0030636 0.0022195 -0.0040666 -0.0023231 -0.0047242 0.000715 0.0013702 0.0010898 -0.0019298 -0.0042749 -0.0013207 0.0032708 0.0034106 0.0062965 0.0040003 8.71e-05 0.00068138 0.0027451 0.0012399 -0.0050404 0.0017851 0.0018922 -1.0798e-05 0.002918 0.00092694 0.00036106 0.0031365 -0.0070751 -0.0015191 -0.0049862 0.0035291 7.2673e-06 
China -0.00029015 -0.0020509 0.00139 0.0010169 -0.00011214 0.0013486 -0.001899 0.00096757 -0.0020488 -0.00060741 0.00095838 -0.0014564 0.0014789 0.0010306 0.0014076 -0.001013 -0.0030303 -0.00043301 -0.0013472 0.0014649 -0.00036371 -0.0018668 0.00030611 -0.000501 0.0008084 -0.00050975 -0.00066115 -0.00099279 -0.00015078 -4.7276e-05 0.00038862 0.0025033 0.0013634 8.7135e-05 -0.00044592 0.00075259 0.0001307 0.0012645 0.0012883 0.0018086 0.0017056 -0.0035971 -2.8759e-05 0.0017172 0.0011094 0.0008733 0.0015772 0.0014235 0.0022753 0.0016962 0.0015308 0.00083654 -0.0014855 0.0013429 -0.002449 -7.7384e-05 0.0018427 -0.0044723 -8.1725e-05 -0.00013097 0.0012383 0.00028453 0.0016195 -0.00083896 -0.0010903 -0.00080852 -0.0016058 0.00010229 -0.0026988 -0.0015572 -0.0018365 0.002549 0.0014377 -0.001821 0.001972 -0.0010288 -0.0013312 -0.00071615 -0.0018146 -0.00035951 -0.0010235 1.7555e-05 0.00044013 0.00090661 0.0049721 0.0008422 0.00084997 -0.001696 0.001202 0.00074071 0.0017869 -0.0016949 0.00089339 0.0015819 -9.1873e-05 -0.0014841 -0.0013122 -0.0011935 0.00027291 0.00092255 
Nepal 0.0010649 -0.0012921 -0.00094983 -0.0025604 -0.0017408 -0.0023976 -0.0017493 0.0004905 -0.0028782 -0.0030103 -0.0011601 -0.0022419 -1.0919e-05 0.0018596 0.0024293 -0.0033263 0.00066621 0.0017908 0.0010593 0.00028011 -0.00010946 0.001602 -0.00013487 0.00029785 0.0026681 0.0020892 0.0021747 -0.0011532 0.0020225 -0.0026755 -0.0016117 0.001635 -0.00092844 0.0013509 -0.0008119 -0.0013697 0.00081193 0.00063817 -0.0028583 0.00142 0.00051122 -0.0023245 0.00076361 0.00028407 -0.00098086 -0.0029611 -0.0012612 0.0025625 -0.00065074 -0.00098496 -0.0007793 0.0030599 -3.0493e-05 0.001659 -8.9223e-05 0.00012728 0.00014606 0.00038474 -0.00097416 0.0028089 -0.0027761 -0.0022166 0.0019689 0.003187 -0.0002633 -0.0014849 0.0021207 0.0011003 0.00056628 -0.0014994 0.0017397 2.4955e-05 0.00033717 0.00031269 0.0017655 0.00053209 -0.0027327 -0.0006766 0.00022095 -0.00025825 -0.0014554 -0.00076698 0.00018127 -0.0019013 0.00031223 -0.0012694 -0.00010694 0.0020764 -0.00084517 0.0026421 -0.0014449 -0.00080572 -0.0012974 0.0015034 -0.00032446 -0.00098194 0.00090948 -0.00045553 9.2976e-05 -0.001915 
in -0.0016249 0.0052112 -0.0036156 0.0022096 -0.00013376 0.0035762 0.0031727 0.0030903 -0.0017049 0.00074159 -0.0014894 -0.00052971 0.0022422 -0.0022085 -0.0038835 -0.0010677 0.0020026 0.00038449 0.0011806 -0.0019039 0.0015498 -0.0020669 -0.003905 -0.00011533 -0.0027065 -0.0025027 0.0020372 -0.0038198 -0.00012238 0.00092486 -0.0014854 0.0016319 -8.9345e-05 -0.0023136 0.0030893 -0.0061049 0.00020953 0.00039799 0.0015466 -0.00075275 0.00036943 -0.0008757 -0.0028005 0.0025708 -0.0020575 0.0019374 0.00017798 0.0013296 -0.00082533 -0.00035423 -0.0023216 -0.00077235 0.0011959 0.0018285 -0.00034245 0.0011491 -0.00027696 0.0064581 0.0040627 0.0050158 0.0013596 0.0023272 -0.002983 0.0075271 -0.0035063 0.0014817 -0.0013297 0.00050238 0.00074261 0.00022576 0.0028886 -0.0026853 -0.00050942 -0.00042938 -0.0018647 0.0030547 -0.0027863 0.0011047 0.0059342 -0.00040912 0.0037235 0.0041991 0.0065906 0.0029604 -0.00022064 0.0014427 0.00077025 -0.00090188 0.0015405 0.0013835 0.001989 0.0035191 0.0031826 -0.0010109 -0.0059629 -0.0032182 -0.004457 0.0027636 -0.0011914 -0.0011195 
